<?xml version="1.0"?>
<opencv_storage>
<cascade>
  <stageType>BOOST</stageType>
  <featureType>HAAR</featureType>
  <height>24</height>
  <width>24</width>
  <stageParams>
    <boostType>GAB</boostType>
    <minHitRate>9.9500000476837158e-01</minHitRate>
    <maxFalseAlarm>5.0000000000000000e-01</maxFalseAlarm>
    <weightTrimRate>9.4999998807907104e-01</weightTrimRate>
    <maxDepth>1</maxDepth>
    <maxWeakCount>100</maxWeakCount></stageParams>
  <featureParams>
    <maxCatCount>0</maxCatCount>
    <featSize>1</featSize>
    <mode>BASIC</mode></featureParams>
  <stageNum>13</stageNum>
  <stages>
    <!-- stage 0 -->
    <_>
      <maxWeakCount>2</maxWeakCount>
      <stageThreshold>-1.3743519783020020e-01</stageThreshold>
      <weakClassifiers>
        <_>
          <internalNodes>
            0 -1 12 -1.9168023020029068e-02</internalNodes>
          <leafValues>
            9.2982459068298340e-01 -8.8764047622680664e-01</leafValues></_>
        <_>
          <internalNodes>
            0 -1 9 -1.2849273160099983e-02</internalNodes>
          <leafValues>
            7.5020527839660645e-01 -1.</leafValues></_></weakClassifiers></_>
    <!-- stage 1 -->
    <_>
      <maxWeakCount>2</maxWeakCount>
      <stageThreshold>2.5835435837507248e-02</stageThreshold>
      <weakClassifiers>
        <_>
          <internalNodes>
            0 -1 17 1.0806425660848618e-01</internalNodes>
          <leafValues>
            -9.6249997615814209e-01 8.2010579109191895e-01</leafValues></_>
        <_>
          <internalNodes>
            0 -1 8 -1.9678744673728943e-01</internalNodes>
          <leafValues>
            9.8833543062210083e-01 -6.8296146392822266e-01</leafValues></_></weakClassifiers></_>
    <!-- stage 2 -->
    <_>
      <maxWeakCount>2</maxWeakCount>
      <stageThreshold>-6.6300094127655029e-02</stageThreshold>
      <weakClassifiers>
        <_>
          <internalNodes>
            0 -1 19 4.0883127599954605e-02</internalNodes>
          <leafValues>
            -9.4666665792465210e-01 7.1859294176101685e-01</leafValues></_>
        <_>
          <internalNodes>
            0 -1 20 8.7391898036003113e-02</internalNodes>
          <leafValues>
            -6.8482685089111328e-01 8.8036656379699707e-01</leafValues></_></weakClassifiers></_>
    <!-- stage 3 -->
    <_>
      <maxWeakCount>3</maxWeakCount>
      <stageThreshold>-8.1345373392105103e-01</stageThreshold>
      <weakClassifiers>
        <_>
          <internalNodes>
            0 -1 10 -4.4149681925773621e-02</internalNodes>
          <leafValues>
            5.8139532804489136e-01 -9.2537313699722290e-01</leafValues></_>
        <_>
          <internalNodes>
            0 -1 14 2.6579465717077255e-02</internalNodes>
          <leafValues>
            -6.0916686058044434e-01 9.0618801116943359e-01</leafValues></_>
        <_>
          <internalNodes>
            0 -1 1 1.2339558452367783e-02</internalNodes>
          <leafValues>
            -7.9426860809326172e-01 8.2058852910995483e-01</leafValues></_></weakClassifiers></_>
    <!-- stage 4 -->
    <_>
      <maxWeakCount>3</maxWeakCount>
      <stageThreshold>1.4288188517093658e-01</stageThreshold>
      <weakClassifiers>
        <_>
          <internalNodes>
            0 -1 21 2.6149314362555742e-03</internalNodes>
          <leafValues>
            -8.6754965782165527e-01 6.6666668653488159e-01</leafValues></_>
        <_>
          <internalNodes>
            0 -1 27 3.3314045140286908e-05</internalNodes>
          <leafValues>
            -9.7649353742599487e-01 4.8630747199058533e-01</leafValues></_>
        <_>
          <internalNodes>
            0 -1 22 -3.9575264963787049e-05</internalNodes>
          <leafValues>
            5.2412408590316772e-01 -9.3243926763534546e-01</leafValues></_></weakClassifiers></_>
    <!-- stage 5 -->
    <_>
      <maxWeakCount>1</maxWeakCount>
      <stageThreshold>5.6950670480728149e-01</stageThreshold>
      <weakClassifiers>
        <_>
          <internalNodes>
            0 -1 15 -1.4967407286167145e-01</internalNodes>
          <leafValues>
            5.6950670480728149e-01 -1.</leafValues></_></weakClassifiers></_>
    <!-- stage 6 -->
    <_>
      <maxWeakCount>2</maxWeakCount>
      <stageThreshold>-1.0433866828680038e-01</stageThreshold>
      <weakClassifiers>
        <_>
          <internalNodes>
            0 -1 10 -4.5533090829849243e-02</internalNodes>
          <leafValues>
            6.4251208305358887e-01 -9.2957746982574463e-01</leafValues></_>
        <_>
          <internalNodes>
            0 -1 25 1.8935274332761765e-02</internalNodes>
          <leafValues>
            -6.1601299047470093e-01 8.2523882389068604e-01</leafValues></_></weakClassifiers></_>
    <!-- stage 7 -->
    <_>
      <maxWeakCount>3</maxWeakCount>
      <stageThreshold>-5.4498773813247681e-01</stageThreshold>
      <weakClassifiers>
        <_>
          <internalNodes>
            0 -1 5 -4.4063496589660645e-01</internalNodes>
          <leafValues>
            8.4285712242126465e-01 -5.5980861186981201e-01</leafValues></_>
        <_>
          <internalNodes>
            0 -1 16 8.5228141397237778e-03</internalNodes>
          <leafValues>
            -5.7286089658737183e-01 9.4682961702346802e-01</leafValues></_>
        <_>
          <internalNodes>
            0 -1 7 2.0055265631526709e-03</internalNodes>
          <leafValues>
            -8.1498402357101440e-01 6.8244969844818115e-01</leafValues></_></weakClassifiers></_>
    <!-- stage 8 -->
    <_>
      <maxWeakCount>3</maxWeakCount>
      <stageThreshold>-1.0222752094268799e+00</stageThreshold>
      <weakClassifiers>
        <_>
          <internalNodes>
            0 -1 11 -1.9580603111535311e-03</internalNodes>
          <leafValues>
            5.8415842056274414e-01 -7.9591834545135498e-01</leafValues></_>
        <_>
          <internalNodes>
            0 -1 6 -2.0121927082072943e-04</internalNodes>
          <leafValues>
            -9.7462022304534912e-01 4.3210658431053162e-01</leafValues></_>
        <_>
          <internalNodes>
            0 -1 13 1.2704534456133842e-02</internalNodes>
          <leafValues>
            -6.5846341848373413e-01 7.1376448869705200e-01</leafValues></_></weakClassifiers></_>
    <!-- stage 9 -->
    <_>
      <maxWeakCount>2</maxWeakCount>
      <stageThreshold>-1.9139590440317988e-03</stageThreshold>
      <weakClassifiers>
        <_>
          <internalNodes>
            0 -1 23 4.1237380355596542e-03</internalNodes>
          <leafValues>
            -5.2777779102325439e-01 8.6466163396835327e-01</leafValues></_>
        <_>
          <internalNodes>
            0 -1 0 1.1580591090023518e-03</internalNodes>
          <leafValues>
            5.2586382627487183e-01 -1.</leafValues></_></weakClassifiers></_>
    <!-- stage 10 -->
    <_>
      <maxWeakCount>3</maxWeakCount>
      <stageThreshold>-1.0327823162078857e+00</stageThreshold>
      <weakClassifiers>
        <_>
          <internalNodes>
            0 -1 3 -4.6838348498567939e-04</internalNodes>
          <leafValues>
            -9.5081967115402222e-01 5.1541852951049805e-01</leafValues></_>
        <_>
          <internalNodes>
            0 -1 23 4.3130130507051945e-03</internalNodes>
          <leafValues>
            -6.0083127021789551e-01 8.6651057004928589e-01</leafValues></_>
        <_>
          <internalNodes>
            0 -1 18 3.4005969064310193e-04</internalNodes>
          <leafValues>
            5.1886856555938721e-01 -9.8241245746612549e-01</leafValues></_></weakClassifiers></_>
    <!-- stage 11 -->
    <_>
      <maxWeakCount>1</maxWeakCount>
      <stageThreshold>4.5833334326744080e-01</stageThreshold>
      <weakClassifiers>
        <_>
          <internalNodes>
            0 -1 4 -2.1408130123745650e-04</internalNodes>
          <leafValues>
            -1. 4.5833334326744080e-01</leafValues></_></weakClassifiers></_>
    <!-- stage 12 -->
    <_>
      <maxWeakCount>3</maxWeakCount>
      <stageThreshold>3.9714793674647808e-03</stageThreshold>
      <weakClassifiers>
        <_>
          <internalNodes>
            0 -1 26 1.3451545964926481e-04</internalNodes>
          <leafValues>
            -9.1596639156341553e-01 4.7826087474822998e-01</leafValues></_>
        <_>
          <internalNodes>
            0 -1 2 -6.1640777857974172e-04</internalNodes>
          <leafValues>
            -9.8692256212234497e-01 4.1707852482795715e-01</leafValues></_>
        <_>
          <internalNodes>
            0 -1 24 -3.5155680961906910e-03</internalNodes>
          <leafValues>
            5.1263314485549927e-01 -8.5911363363265991e-01</leafValues></_></weakClassifiers></_></stages>
  <features>
    <_>
      <rects>
        <_>
          0 12 4 3 -1.</_>
        <_>
          2 12 2 3 2.</_></rects>
      <tilted>0</tilted></_>
    <_>
      <rects>
        <_>
          1 2 6 13 -1.</_>
        <_>
          3 2 2 13 3.</_></rects>
      <tilted>0</tilted></_>
    <_>
      <rects>
        <_>
          1 5 2 8 -1.</_>
        <_>
          1 5 1 4 2.</_>
        <_>
          2 9 1 4 2.</_></rects>
      <tilted>0</tilted></_>
    <_>
      <rects>
        <_>
          1 7 2 8 -1.</_>
        <_>
          1 7 1 4 2.</_>
        <_>
          2 11 1 4 2.</_></rects>
      <tilted>0</tilted></_>
    <_>
      <rects>
        <_>
          1 9 2 6 -1.</_>
        <_>
          1 9 1 3 2.</_>
        <_>
          2 12 1 3 2.</_></rects>
      <tilted>0</tilted></_>
    <_>
      <rects>
        <_>
          2 0 18 22 -1.</_>
        <_>
          8 0 6 22 3.</_></rects>
      <tilted>0</tilted></_>
    <_>
      <rects>
        <_>
          2 2 8 2 -1.</_>
        <_>
          2 2 4 1 2.</_>
        <_>
          6 3 4 1 2.</_></rects>
      <tilted>0</tilted></_>
    <_>
      <rects>
        <_>
          2 5 4 14 -1.</_>
        <_>
          2 5 2 7 2.</_>
        <_>
          4 12 2 7 2.</_></rects>
      <tilted>0</tilted></_>
    <_>
      <rects>
        <_>
          3 4 18 15 -1.</_>
        <_>
          9 4 6 15 3.</_></rects>
      <tilted>0</tilted></_>
    <_>
      <rects>
        <_>
          4 2 6 16 -1.</_>
        <_>
          4 2 3 8 2.</_>
        <_>
          7 10 3 8 2.</_></rects>
      <tilted>0</tilted></_>
    <_>
      <rects>
        <_>
          4 8 10 16 -1.</_>
        <_>
          4 8 5 8 2.</_>
        <_>
          9 16 5 8 2.</_></rects>
      <tilted>0</tilted></_>
    <_>
      <rects>
        <_>
          4 16 3 4 -1.</_>
        <_>
          4 18 3 2 2.</_></rects>
      <tilted>0</tilted></_>
    <_>
      <rects>
        <_>
          5 11 8 6 -1.</_>
        <_>
          5 11 4 3 2.</_>
        <_>
          9 14 4 3 2.</_></rects>
      <tilted>0</tilted></_>
    <_>
      <rects>
        <_>
          6 11 3 8 -1.</_>
        <_>
          6 15 3 4 2.</_></rects>
      <tilted>0</tilted></_>
    <_>
      <rects>
        <_>
          6 20 18 4 -1.</_>
        <_>
          6 22 18 2 2.</_></rects>
      <tilted>0</tilted></_>
    <_>
      <rects>
        <_>
          7 0 9 20 -1.</_>
        <_>
          7 10 9 10 2.</_></rects>
      <tilted>0</tilted></_>
    <_>
      <rects>
        <_>
          7 11 7 3 -1.</_>
        <_>
          7 12 7 1 3.</_></rects>
      <tilted>0</tilted></_>
    <_>
      <rects>
        <_>
          8 0 16 22 -1.</_>
        <_>
          8 0 8 11 2.</_>
        <_>
          16 11 8 11 2.</_></rects>
      <tilted>0</tilted></_>
    <_>
      <rects>
        <_>
          9 0 6 1 -1.</_>
        <_>
          11 0 2 1 3.</_></rects>
      <tilted>0</tilted></_>
    <_>
      <rects>
        <_>
          9 10 10 12 -1.</_>
        <_>
          9 10 5 6 2.</_>
        <_>
          14 16 5 6 2.</_></rects>
      <tilted>0</tilted></_>
    <_>
      <rects>
        <_>
          11 5 12 10 -1.</_>
        <_>
          17 5 6 10 2.</_></rects>
      <tilted>0</tilted></_>
    <_>
      <rects>
        <_>
          11 16 4 1 -1.</_>
        <_>
          13 16 2 1 2.</_></rects>
      <tilted>0</tilted></_>
    <_>
      <rects>
        <_>
          12 0 1 2 -1.</_>
        <_>
          12 1 1 1 2.</_></rects>
      <tilted>0</tilted></_>
    <_>
      <rects>
        <_>
          13 18 3 3 -1.</_>
        <_>
          13 19 3 1 3.</_></rects>
      <tilted>0</tilted></_>
    <_>
      <rects>
        <_>
          15 6 1 8 -1.</_>
        <_>
          15 10 1 4 2.</_></rects>
      <tilted>0</tilted></_>
    <_>
      <rects>
        <_>
          15 7 6 5 -1.</_>
        <_>
          18 7 3 5 2.</_></rects>
      <tilted>0</tilted></_>
    <_>
      <rects>
        <_>
          19 14 2 2 -1.</_>
        <_>
          19 15 2 1 2.</_></rects>
      <tilted>0</tilted></_>
    <_>
      <rects>
        <_>
          19 18 1 4 -1.</_>
        <_>
          19 20 1 2 2.</_></rects>
      <tilted>0</tilted></_></features></cascade>
</opencv_storage>
